digraph Tree {
node [shape=box, style="filled, rounded", color="black", fontname=helvetica] ;
edge [fontname=helvetica] ;
0 [label="X[27] <= 0.5\ngini = 0.003\nsamples = 50503\nvalue = [14, 65, 50424]", fillcolor="#8139e5ff"] ;
1 [label="X[114] <= 0.5\ngini = 0.002\nsamples = 50274\nvalue = [0, 45, 50229]", fillcolor="#8139e5ff"] ;
0 -> 1 [labeldistance=2.5, labelangle=45, headlabel="True"] ;
2 [label="X[124] <= 0.5\ngini = 0.002\nsamples = 50272\nvalue = [0, 43, 50229]", fillcolor="#8139e5ff"] ;
1 -> 2 ;
3 [label="X[129] <= 0.5\ngini = 0.002\nsamples = 50271\nvalue = [0, 42, 50229]", fillcolor="#8139e5ff"] ;
2 -> 3 ;
4 [label="X[14] <= 3114.5\ngini = 0.002\nsamples = 50270\nvalue = [0, 41, 50229]", fillcolor="#8139e5ff"] ;
3 -> 4 ;
5 [label="gini = 0.001\nsamples = 50179\nvalue = [0, 35, 50144]", fillcolor="#8139e5ff"] ;
4 -> 5 ;
6 [label="gini = 0.123\nsamples = 91\nvalue = [0, 6, 85]", fillcolor="#8139e5ed"] ;
4 -> 6 ;
7 [label="gini = 0.0\nsamples = 1\nvalue = [0, 1, 0]", fillcolor="#39e581ff"] ;
3 -> 7 ;
8 [label="gini = 0.0\nsamples = 1\nvalue = [0, 1, 0]", fillcolor="#39e581ff"] ;
2 -> 8 ;
9 [label="gini = 0.0\nsamples = 2\nvalue = [0, 2, 0]", fillcolor="#39e581ff"] ;
1 -> 9 ;
10 [label="X[20] <= 1.0\ngini = 0.264\nsamples = 229\nvalue = [14, 20, 195]", fillcolor="#8139e5d6"] ;
0 -> 10 [labeldistance=2.5, labelangle=-45, headlabel="False"] ;
11 [label="X[4] <= 53.0\ngini = 0.472\nsamples = 21\nvalue = [13, 0, 8]", fillcolor="#e5813962"] ;
10 -> 11 ;
12 [label="gini = 0.0\nsamples = 13\nvalue = [13, 0, 0]", fillcolor="#e58139ff"] ;
11 -> 12 ;
13 [label="gini = 0.0\nsamples = 8\nvalue = [0, 0, 8]", fillcolor="#8139e5ff"] ;
11 -> 13 ;
14 [label="X[7] <= 201.5\ngini = 0.182\nsamples = 208\nvalue = [1, 20, 187]", fillcolor="#8139e5e3"] ;
10 -> 14 ;
15 [label="X[1] <= 117.5\ngini = 0.122\nsamples = 200\nvalue = [1, 12, 187]", fillcolor="#8139e5ed"] ;
14 -> 15 ;
16 [label="X[12] <= 25.0\ngini = 0.04\nsamples = 148\nvalue = [1, 2, 145]", fillcolor="#8139e5fa"] ;
15 -> 16 ;
17 [label="gini = 0.56\nsamples = 5\nvalue = [1, 1, 3]", fillcolor="#8139e57f"] ;
16 -> 17 ;
18 [label="gini = 0.014\nsamples = 143\nvalue = [0, 1, 142]", fillcolor="#8139e5fd"] ;
16 -> 18 ;
19 [label="X[12] <= 1374.5\ngini = 0.311\nsamples = 52\nvalue = [0, 10, 42]", fillcolor="#8139e5c2"] ;
15 -> 19 ;
20 [label="gini = 0.165\nsamples = 11\nvalue = [0, 10, 1]", fillcolor="#39e581e6"] ;
19 -> 20 ;
21 [label="gini = 0.0\nsamples = 41\nvalue = [0, 0, 41]", fillcolor="#8139e5ff"] ;
19 -> 21 ;
22 [label="gini = 0.0\nsamples = 8\nvalue = [0, 8, 0]", fillcolor="#39e581ff"] ;
14 -> 22 ;
}