digraph Tree {
node [shape=box, style="filled, rounded", color="black", fontname=helvetica] ;
edge [fontname=helvetica] ;
0 [label="X[1] <= 64.5\ngini = 0.005\nsamples = 14480\nvalue = [38, 14442]", fillcolor="#399de5fe"] ;
1 [label="X[3] <= 9.5\ngini = 0.005\nsamples = 14473\nvalue = [34, 14439]", fillcolor="#399de5fe"] ;
0 -> 1 [labeldistance=2.5, labelangle=45, headlabel="True"] ;
2 [label="X[14] <= 1379.0\ngini = 0.046\nsamples = 718\nvalue = [17, 701]", fillcolor="#399de5f9"] ;
1 -> 2 ;
3 [label="X[6] <= 250.5\ngini = 0.003\nsamples = 701\nvalue = [1, 700]", fillcolor="#399de5ff"] ;
2 -> 3 ;
4 [label="gini = 0.0\nsamples = 699\nvalue = [0, 699]", fillcolor="#399de5ff"] ;
3 -> 4 ;
5 [label="X[19] <= 2.5\ngini = 0.5\nsamples = 2\nvalue = [1, 1]", fillcolor="#e5813900"] ;
3 -> 5 ;
6 [label="gini = 0.0\nsamples = 1\nvalue = [0, 1]", fillcolor="#399de5ff"] ;
5 -> 6 ;
7 [label="gini = 0.0\nsamples = 1\nvalue = [1, 0]", fillcolor="#e58139ff"] ;
5 -> 7 ;
8 [label="X[2] <= 33.0\ngini = 0.111\nsamples = 17\nvalue = [16, 1]", fillcolor="#e58139ef"] ;
2 -> 8 ;
9 [label="gini = 0.0\nsamples = 16\nvalue = [16, 0]", fillcolor="#e58139ff"] ;
8 -> 9 ;
10 [label="gini = 0.0\nsamples = 1\nvalue = [0, 1]", fillcolor="#399de5ff"] ;
8 -> 10 ;
11 [label="X[12] <= 0.5\ngini = 0.002\nsamples = 13755\nvalue = [17, 13738]", fillcolor="#399de5ff"] ;
1 -> 11 ;
12 [label="X[13] <= 651.5\ngini = 0.008\nsamples = 2832\nvalue = [12, 2820]", fillcolor="#399de5fe"] ;
11 -> 12 ;
13 [label="X[6] <= 0.5\ngini = 0.007\nsamples = 2830\nvalue = [10, 2820]", fillcolor="#399de5fe"] ;
12 -> 13 ;
14 [label="gini = 0.142\nsamples = 26\nvalue = [2, 24]", fillcolor="#399de5ea"] ;
13 -> 14 ;
15 [label="gini = 0.006\nsamples = 2804\nvalue = [8, 2796]", fillcolor="#399de5fe"] ;
13 -> 15 ;
16 [label="gini = 0.0\nsamples = 2\nvalue = [2, 0]", fillcolor="#e58139ff"] ;
12 -> 16 ;
17 [label="X[4] <= 146.0\ngini = 0.001\nsamples = 10923\nvalue = [5, 10918]", fillcolor="#399de5ff"] ;
11 -> 17 ;
18 [label="X[14] <= 1104.5\ngini = 0.001\nsamples = 10738\nvalue = [3, 10735]", fillcolor="#399de5ff"] ;
17 -> 18 ;
19 [label="gini = 0.0\nsamples = 9546\nvalue = [0, 9546]", fillcolor="#399de5ff"] ;
18 -> 19 ;
20 [label="gini = 0.005\nsamples = 1192\nvalue = [3, 1189]", fillcolor="#399de5fe"] ;
18 -> 20 ;
21 [label="X[6] <= 251.5\ngini = 0.021\nsamples = 185\nvalue = [2, 183]", fillcolor="#399de5fc"] ;
17 -> 21 ;
22 [label="gini = 0.011\nsamples = 183\nvalue = [1, 182]", fillcolor="#399de5fe"] ;
21 -> 22 ;
23 [label="gini = 0.5\nsamples = 2\nvalue = [1, 1]", fillcolor="#e5813900"] ;
21 -> 23 ;
24 [label="X[13] <= 1.0\ngini = 0.49\nsamples = 7\nvalue = [4, 3]", fillcolor="#e5813940"] ;
0 -> 24 [labeldistance=2.5, labelangle=-45, headlabel="False"] ;
25 [label="gini = 0.0\nsamples = 4\nvalue = [4, 0]", fillcolor="#e58139ff"] ;
24 -> 25 ;
26 [label="gini = 0.0\nsamples = 3\nvalue = [0, 3]", fillcolor="#399de5ff"] ;
24 -> 26 ;
}